<NeuralNetwork>
    <Layer type="input" transferFunction="0" size="7"/>
    <Layer type="hidden" transferFunction="2">
        <Neuron>
            <Bias>-0.077292128599056542</Bias>
            <Weights>
                <Weight>2.0109787644699155</Weight>
                <Weight>0.43609244002139985</Weight>
                <Weight>1.7179841047518249</Weight>
                <Weight>1.0732286760858494</Weight>
                <Weight>-1.0636319657478406</Weight>
                <Weight>0.020429385979768178</Weight>
                <Weight>0.050632166419773951</Weight>
            </Weights>
        </Neuron>
        <Neuron>
            <Bias>-0.35550491350010943</Bias>
            <Weights>
                <Weight>2.158016694365442</Weight>
                <Weight>-0.077263306353663463</Weight>
                <Weight>-2.1727950783118581</Weight>
                <Weight>-0.46937972297340946</Weight>
                <Weight>0.14907705674971805</Weight>
                <Weight>0.96870052030283327</Weight>
                <Weight>1.4277223642924426</Weight>
            </Weights>
        </Neuron>
        <Neuron>
            <Bias>0.80249327804637649</Bias>
            <Weights>
                <Weight>-1.3267821059194578</Weight>
                <Weight>-0.7004008487646276</Weight>
                <Weight>-0.15997410889599459</Weight>
                <Weight>1.9401171343329171</Weight>
                <Weight>0.11226310613604808</Weight>
                <Weight>0.7900853602071789</Weight>
                <Weight>-0.68659867669810304</Weight>
            </Weights>
        </Neuron>
        <Neuron>
            <Bias>-3.9844133118148606</Bias>
            <Weights>
                <Weight>-0.98602164864123099</Weight>
                <Weight>0.48366876316995483</Weight>
                <Weight>0.92142073561305571</Weight>
                <Weight>0.77227519150279189</Weight>
                <Weight>-0.9587239690539453</Weight>
                <Weight>-1.9816045740231649</Weight>
                <Weight>0.31690821133594721</Weight>
            </Weights>
        </Neuron>
        <Neuron>
            <Bias>-1.3134149052072615</Bias>
            <Weights>
                <Weight>-1.5710124149867695</Weight>
                <Weight>0.56878849425103561</Weight>
                <Weight>0.28849588238991952</Weight>
                <Weight>0.58025332690474019</Weight>
                <Weight>0.094197232751714099</Weight>
                <Weight>1.7142824863643522</Weight>
                <Weight>1.1107633771709409</Weight>
            </Weights>
        </Neuron>
        <Neuron>
            <Bias>1.1093096071066688</Bias>
            <Weights>
                <Weight>1.0540437145215826</Weight>
                <Weight>-1.2532829771288154</Weight>
                <Weight>2.1230088513879415</Weight>
                <Weight>1.1508818172415689</Weight>
                <Weight>-0.68353752642511834</Weight>
                <Weight>-0.70361769079734293</Weight>
                <Weight>-2.958266482281537</Weight>
            </Weights>
        </Neuron>
        <Neuron>
            <Bias>-1.3106734637811794</Bias>
            <Weights>
                <Weight>0.67701729194857829</Weight>
                <Weight>-0.70621385080685484</Weight>
                <Weight>-1.8773172896949744</Weight>
                <Weight>-0.43454129046913975</Weight>
                <Weight>-0.0032129860223893761</Weight>
                <Weight>-0.44043524727269784</Weight>
                <Weight>1.9389735305722222</Weight>
            </Weights>
        </Neuron>
        <Neuron>
            <Bias>0.0065049578632616492</Bias>
            <Weights>
                <Weight>-0.183635088776749</Weight>
                <Weight>-0.09323193010350074</Weight>
                <Weight>0.013611632442655518</Weight>
                <Weight>0.3317658110555497</Weight>
                <Weight>-0.96216886015298397</Weight>
                <Weight>-0.68428650967077653</Weight>
                <Weight>-0.59515889072325545</Weight>
            </Weights>
        </Neuron>
        <Neuron>
            <Bias>1.8360379384633376</Bias>
            <Weights>
                <Weight>-0.010687263484802308</Weight>
                <Weight>1.0781896170326368</Weight>
                <Weight>1.2671343190790532</Weight>
                <Weight>1.4279272905204137</Weight>
                <Weight>-0.024360461970510418</Weight>
                <Weight>1.6901148714494578</Weight>
                <Weight>-0.53352712334122498</Weight>
            </Weights>
        </Neuron>
        <Neuron>
            <Bias>-0.19121308907021123</Bias>
            <Weights>
                <Weight>1.2232128270978453</Weight>
                <Weight>0.089690747104970631</Weight>
                <Weight>0.037991155926030945</Weight>
                <Weight>0.70431104641688691</Weight>
                <Weight>-0.046118348054492907</Weight>
                <Weight>0.18576089504423612</Weight>
                <Weight>1.2229559727962966</Weight>
            </Weights>
        </Neuron>
    </Layer>
    <Layer type="output" transferFunction="1">
        <Neuron>
            <Bias>-2.2951074325681735</Bias>
            <Weights>
                <Weight>1.9652636924399842</Weight>
                <Weight>0.85833658331290241</Weight>
                <Weight>1.1265291797811658</Weight>
                <Weight>0.61291011528346939</Weight>
                <Weight>1.1057646470728451</Weight>
                <Weight>0.87833910929371461</Weight>
                <Weight>1.1035114099303678</Weight>
                <Weight>1.6011502773454487</Weight>
                <Weight>0.43369786973470231</Weight>
                <Weight>-1.1710854317842108</Weight>
            </Weights>
        </Neuron>
    </Layer>
</NeuralNetwork>
